35 24
30 -0.269931 -0.130478 -0.137082 -0.0206673 0.152205 -0.0155817 -0.20633 0.143645 -0.268817 -0.181122 -0.223871 0.113781 0.140616 0.182047 -0.0395526 0.0159814 -0.108745 0.0259677 0.0181228 -0.0933361 0.0127107 -0.209152 -0.245008 -0.158437
33 -0.379937 -0.266523 -0.229552 -0.0315914 0.334753 -0.0711745 -0.269298 0.255535 -0.336417 -0.250225 -0.319939 0.0937223 0.173481 0.19708 -0.0631732 -0.0463064 -0.178011 0.0328648 0.0126249 -0.138117 0.00932483 -0.297041 -0.34536 -0.266659
34 -0.438017 -0.0265323 -0.0979625 -0.0929749 0.0855748 0.018074 -0.304246 0.230692 -0.428987 -0.29976 -0.380464 0.258955 0.32826 0.389313 -0.0469608 0.0818317 -0.188492 0.0431938 0.0412666 -0.18608 0.0448266 -0.383189 -0.40346 -0.252773
10 -0.173504 -0.0590206 -0.0714387 -0.0311336 0.110277 -0.0339776 -0.0991058 0.0967168 -0.158877 -0.112525 -0.159919 0.0552862 0.0891794 0.117711 -0.00897023 -0.0224047 -0.0600441 0.00244707 -0.00903541 -0.0645639 0.0209684 -0.135774 -0.147198 -0.106831
0 -0.40236 -0.19243 -0.20847 -0.047283 0.266397 -0.109247 -0.28565 0.238162 -0.334588 -0.275641 -0.378028 0.145435 0.260976 0.278364 -0.116527 -0.0781506 -0.159983 -0.000477793 -0.0180302 -0.146496 -0.0166629 -0.314822 -0.390226 -0.236832
23 -0.145234 -0.103375 -0.0808437 -0.00164229 0.089026 -0.0295043 -0.136354 0.0844441 -0.157607 -0.0994055 -0.145614 0.0808398 0.083997 0.123722 -0.0224445 -0.0169553 -0.0814891 0.00902633 0.00533082 -0.0397701 0.0134436 -0.121552 -0.139027 -0.107129
18 -0.198213 -0.0403653 -0.0643983 -0.0149428 0.0417497 -0.0230534 -0.120623 0.0743496 -0.180505 -0.123383 -0.181348 0.100625 0.129041 0.14881 -0.0191728 0.025017 -0.0805426 -0.0115821 0.0101467 -0.064182 0.0315882 -0.144474 -0.154001 -0.124355
28 -0.279469 -0.12938 -0.140212 -0.0362594 0.203975 -0.0308805 -0.194163 0.178203 -0.258295 -0.205452 -0.280191 0.12964 0.158139 0.195954 -0.0700749 -0.0314864 -0.113955 0.00908816 0.00458848 -0.0878567 0.00712349 -0.238049 -0.247132 -0.181135
13 -0.248655 -0.0347617 -0.0891938 -0.0174773 0.0878676 -0.00235936 -0.172548 0.0975519 -0.197268 -0.158515 -0.220213 0.117114 0.181921 0.204564 -0.0327962 0.0256669 -0.109303 -0.0119701 0.0126317 -0.103848 0.0340666 -0.21221 -0.2258 -0.137601
16 -0.163449 -0.0948564 -0.065438 -0.0399239 0.124326 -0.0279565 -0.124877 0.107145 -0.16655 -0.11882 -0.164952 0.0721199 0.107005 0.102793 -0.0142969 0.00381118 -0.0765008 0.0155963 0.026129 -0.0524196 0.0168179 -0.140186 -0.146792 -0.109036
6 -0.285404 -0.113661 -0.134058 -0.0170863 0.138551 -0.0201453 -0.186573 0.136287 -0.224778 -0.18757 -0.24615 0.123643 0.141783 0.184527 -0.0509331 0.0113465 -0.109594 0.0308932 0.0373764 -0.0808986 0.0268102 -0.222625 -0.225728 -0.16766
17 -0.358826 -0.111983 -0.13708 -0.0713775 0.145211 -0.0356313 -0.241662 0.209581 -0.357061 -0.265982 -0.332059 0.190982 0.275069 0.321626 -0.0847908 0.0280578 -0.180234 0.000728558 0.0356343 -0.125275 0.0431771 -0.333048 -0.343771 -0.221707
24 -0.244656 -0.124263 -0.0879889 -0.0174132 0.129992 -0.00595512 -0.14458 0.153546 -0.223435 -0.15947 -0.181304 0.0687254 0.123609 0.17262 -0.0358036 0.0129006 -0.0756651 0.0360962 0.0219643 -0.0798472 0.0263362 -0.183776 -0.202612 -0.135805
12 -0.173032 -0.0281082 -0.0612695 -0.0117132 0.0387418 0.010833 -0.104063 0.0655985 -0.148696 -0.130949 -0.128223 0.0764214 0.131622 0.144686 -0.00933314 0.0321786 -0.0531877 -0.0139258 0.0316909 -0.0472434 0.0103095 -0.16379 -0.14168 -0.0954337
26 -0.270813 -0.140303 -0.127169 -0.0414533 0.176548 -0.0189335 -0.200769 0.148988 -0.240198 -0.189931 -0.217437 0.0994353 0.156294 0.186476 -0.0254267 -0.00497 -0.129143 0.020484 0.0152819 -0.072954 0.0160766 -0.210796 -0.221115 -0.154743
32 -0.357907 -0.17861 -0.180403 -0.0241369 0.251394 -0.0679201 -0.276799 0.228867 -0.311964 -0.223682 -0.327394 0.146058 0.174044 0.237243 -0.0584635 -0.0131793 -0.146314 0.0278078 0.0301242 -0.133106 -0.00745973 -0.266684 -0.319627 -0.234067
15 -0.126496 -0.0533166 -0.071655 -0.0298507 0.0538808 -0.00409538 -0.0984886 0.0620892 -0.0966219 -0.0958518 -0.120251 0.049908 0.0708904 0.103913 0.000287359 -0.0189028 -0.0632237 0.00851392 -0.0106628 -0.0547432 0.000966927 -0.0989859 -0.101116 -0.078998
7 -0.33163 -0.12433 -0.14238 -0.0359799 0.171755 -0.0341578 -0.228531 0.187706 -0.315256 -0.228853 -0.274419 0.149185 0.207157 0.261217 -0.0311899 0.0115454 -0.129693 0.00198437 0.0366373 -0.117751 0.0393691 -0.241742 -0.284447 -0.21839
31 -0.147412 -0.0797845 -0.0652166 -0.00517098 0.0771821 -0.0211392 -0.115083 0.074086 -0.146406 -0.103471 -0.125608 0.0682832 0.0692761 0.0918615 -0.0109804 -0.00397972 -0.0598817 0.00959671 0.0226419 -0.0399312 0.024972 -0.10447 -0.107547 -0.107981
1 -0.267513 -0.0784844 -0.0988467 -0.032306 0.113893 -0.0130269 -0.19654 0.145422 -0.233246 -0.186435 -0.24474 0.121276 0.164319 0.213819 -0.0406516 -0.0126542 -0.131838 -0.00285733 0.0338752 -0.10966 0.0189099 -0.211758 -0.220643 -0.177633
3 -0.271733 -0.13503 -0.143631 -0.0350467 0.184105 -0.028481 -0.184977 0.173978 -0.222287 -0.174311 -0.240532 0.0838238 0.161789 0.193059 -0.0652096 -0.00106015 -0.111521 0.00614097 0.00186019 -0.101308 0.032011 -0.19491 -0.22607 -0.181482
4 -0.336417 -0.110035 -0.148416 -0.0600506 0.168419 -0.0483769 -0.243931 0.185529 -0.275616 -0.200788 -0.274344 0.157721 0.209568 0.226301 -0.0536839 0.0106361 -0.134465 0.0130098 0.00205543 -0.124499 0.0163384 -0.24027 -0.278242 -0.186894
8 -0.232735 -0.0296163 -0.0841082 -0.0355034 0.0867741 0.00852504 -0.164288 0.118895 -0.240859 -0.157282 -0.24192 0.155901 0.1981 0.228276 -0.0618049 0.0123345 -0.109977 0.0148085 0.0169072 -0.104251 0.00277709 -0.234682 -0.233038 -0.162255
5 -0.26661 -0.0673126 -0.122149 -0.0178419 0.107491 -0.0360494 -0.187599 0.14033 -0.250497 -0.163164 -0.22055 0.126172 0.159899 0.204363 -0.0292372 0.0220002 -0.120386 0.00508823 0.0047042 -0.0848605 0.0151008 -0.208956 -0.241406 -0.176473
11 -0.267363 -0.0444802 -0.113906 -0.0333038 0.0852475 -0.0230359 -0.18303 0.140647 -0.246451 -0.174802 -0.232045 0.147557 0.190666 0.250245 -0.0393644 0.0268398 -0.123282 0.0139618 -0.000687462 -0.0938142 0.00772868 -0.240672 -0.268214 -0.167448
21 -0.175677 -0.0984202 -0.0872286 -0.00610541 0.117572 -0.00414974 -0.117399 0.0873596 -0.146194 -0.116274 -0.142365 0.0607363 0.106168 0.10513 -0.0360963 -0.00647693 -0.0518355 0.0193649 0.0204727 -0.0494109 0.0171261 -0.135018 -0.134672 -0.0983421
22 -0.138371 -0.00244773 -0.0285217 -0.0268427 0.0110165 0.00843695 -0.0718224 0.0431762 -0.107157 -0.0838952 -0.108475 0.0753776 0.088428 0.116147 -0.0380918 0.00274303 -0.0538499 -0.0145682 0.0149813 -0.0533003 0.0137289 -0.121877 -0.116734 -0.0878136
29 -0.159519 -0.0770049 -0.0844963 -0.00326428 0.0801738 -0.00900156 -0.113985 0.107619 -0.165243 -0.117496 -0.150428 0.0621778 0.0985681 0.108785 -0.0189457 -0.00889534 -0.0752008 0.0135476 0.00241948 -0.0705251 0.0211104 -0.108336 -0.160754 -0.113122
9 -0.156357 -0.0940335 -0.100751 -0.0251316 0.12744 -0.0300973 -0.128168 0.0854714 -0.159988 -0.129673 -0.162393 0.0744404 0.0898227 0.121905 -0.0342546 -0.00358403 -0.0888645 0.0198384 0.0247381 -0.0761718 0.00445244 -0.129106 -0.157068 -0.0895723
27 -0.199026 -0.110907 -0.0926655 -0.0152232 0.112 -0.030055 -0.133612 0.10725 -0.179616 -0.12416 -0.163912 0.0554105 0.0970124 0.124471 -0.0193332 -0.00573457 -0.0576679 0.0171854 0.00888028 -0.0561322 -0.00991994 -0.134248 -0.158109 -0.125662
20 -0.111193 -0.0597854 -0.0659592 -0.019826 0.0719397 -0.0138176 -0.0740139 0.0848857 -0.101878 -0.0690334 -0.0985893 0.0702947 0.0957325 0.0766057 -0.0343041 -0.00680544 -0.0731593 0.0109217 0.021209 -0.0616028 0.0214893 -0.0863042 -0.11804 -0.0772779
25 -0.271952 -0.135693 -0.140878 -0.0119418 0.140003 -0.0211315 -0.186253 0.152181 -0.228244 -0.153099 -0.215953 0.0907259 0.159757 0.172436 -0.0434003 -0.00815708 -0.105675 0.0196391 0.0192473 -0.095707 0.0133692 -0.18773 -0.211765 -0.175642
19 -0.155139 -0.0551173 -0.0698974 -0.010818 0.0900427 -0.039731 -0.122955 0.11034 -0.132722 -0.120835 -0.137692 0.0531187 0.0795164 0.0929245 -0.0387049 -0.0101328 -0.0563837 -0.00283889 0.00424525 -0.0339862 0.0188043 -0.100697 -0.155602 -0.0789833
2 -0.239404 -0.0965017 -0.118007 -0.0264015 0.137012 -0.0315218 -0.155956 0.120314 -0.223255 -0.169249 -0.198396 0.0998258 0.143159 0.175247 -0.0258785 -0.0171358 -0.0961557 0.0162226 0.0208272 -0.0914792 0.0276708 -0.187777 -0.201909 -0.131339
14 -0.280215 -0.140145 -0.141704 -0.0498758 0.183568 -0.0295447 -0.218404 0.165686 -0.254235 -0.187317 -0.268048 0.132967 0.190837 0.191545 -0.0722898 -0.0338285 -0.140262 0.0283931 -0.00326335 -0.104486 0.0194187 -0.223184 -0.282268 -0.179008
