35 100
34 0.0704288 -0.0786975 0.00865606 0.0445618 0.00377213 0.0333587 0.00866821 0.0220255 0.060817 -0.0577553 0.0286401 0.058703 0.00611278 -0.0114231 -0.0185307 -0.00559408 -0.0341038 -0.0377626 -0.00991912 -0.01338 0.0477542 -0.0692759 -0.0387952 -0.0412528 0.0140833 -0.00171934 -0.005345 0.0284328 0.00165659 -0.0596661 -0.041924 -0.0581045 -0.0390699 0.0186278 -0.0255721 -0.0865478 -0.0140224 -0.0354767 0.0283161 -0.0162589 0.0316897 -0.0220927 -0.0165575 0.00237777 0.0598096 -0.0288422 0.023816 -0.0150346 0.0567943 -0.000283503 -0.0152473 0.0246006 0.0561302 -0.0292194 0.0391032 0.0612965 -0.0420936 0.045206 -0.0261958 0.0238553 -0.0340622 -0.00562065 0.0106309 -0.04253 0.0899586 -0.0253526 -0.0264443 0.0432986 -0.0383034 -0.0484061 -0.00114532 0.00647857 0.0150919 0.00927837 0.0329605 0.0205315 0.0159724 -0.00604114 0.00905641 0.0233253 0.052811 -0.0096724 0.0262431 -0.0397523 0.000100467 0.00643132 -0.0704879 0.00448288 0.0192335 0.0278013 0.00590506 -0.0258767 -0.0137849 0.0338128 -0.0189676 0.0411159 0.0162235 0.0670184 -0.0118603 0.0126326
0 0.0749801 0.213987 -0.390107 -0.210309 0.25317 -0.0559782 -0.180305 0.114055 -0.408893 0.0788094 0.00562018 -0.226581 -0.211793 -0.39215 -0.0901286 -0.00271835 0.411693 0.124201 -0.428938 -0.15437 -0.040414 -0.358609 -0.116089 0.52818 -0.0172168 0.0247736 0.286645 -0.217574 0.0902732 -0.0181072 0.254499 0.448357 -0.507507 -0.396502 -0.407283 0.26754 0.268459 -0.0816492 0.507702 0.224012 -0.350403 -0.65362 -0.0409384 -0.405823 -0.695721 0.0241588 -0.100299 -0.222413 -0.537414 -0.080658 0.229377 -0.240876 -0.270597 0.191712 -0.720536 -0.0581275 0.202718 0.132271 -0.115735 0.364053 0.239851 -0.384386 -0.179035 0.340827 0.00581057 0.286988 0.492559 -0.602127 -0.188662 0.121594 -0.283238 -0.498994 -0.373173 0.102321 0.140781 -0.345732 -0.0576326 0.112216 -0.369453 0.0575143 -0.273911 -0.200555 0.0869269 -0.00276322 0.214248 0.301955 0.0951273 0.0188423 0.362584 -0.0107128 -0.337973 0.204769 -0.0375482 -0.245891 0.0576761 -0.435577 0.329406 -0.514096 0.406303 0.178845
23 0.0326032 -0.143555 0.0710008 0.088541 0.0468018 0.0282501 0.105376 -0.0328121 0.183433 -0.09396 -0.153145 0.175194 0.0610868 0.0627594 -0.00451022 -0.015672 -0.166015 -0.0797915 -0.0344063 0.102568 0.176742 -0.120669 -0.106015 -0.101675 -0.0548431 -0.119353 -0.0170705 0.227818 -0.122149 -0.219646 -0.165522 -0.10743 -0.108296 0.166183 0.090466 -0.128799 -0.0538374 -0.0834342 0.0231785 -0.0742334 -0.0613791 0.0603441 0.0498062 0.16374 0.202501 -0.068308 0.0767273 0.079638 0.143602 -0.0348687 -0.0935538 0.105762 0.0843652 0.0173828 0.157046 0.0478917 -0.116364 -0.0270183 0.0311291 0.0544007 -0.161789 0.0323095 0.0289662 -0.188889 0.20296 -0.138567 -0.157378 0.198741 0.0316785 -0.187291 -0.0892087 0.0762092 0.0383657 0.0178386 -0.0171756 0.0745578 0.0827103 0.0686557 0.160377 0.0748713 0.168043 0.063795 0.105361 -0.131156 0.0253653 -0.0303108 -0.195569 -0.117732 -0.0425172 -0.0430589 0.172707 -0.129868 -0.00656726 -0.045787 0.0118516 0.114633 -0.12556 0.136068 -0.0156935 -0.146188
33 -0.0843548 -0.0634569 0.141647 0.170181 0.0623619 0.0438722 0.0476757 -0.153229 0.0472046 -0.00782242 -0.144683 0.0746801 0.0544702 0.0219741 0.126967 -0.159762 -0.0874836 0.0237883 0.108931 -0.0364371 0.115092 0.0308283 -0.0110665 -0.0451949 0.0648269 -0.132371 -0.0668678 0.0618559 -0.173476 0.0417537 -0.244491 -0.0967537 0.106909 0.138814 0.321227 0.0963618 -0.100482 -0.00624547 -0.0945418 -0.133253 -0.129671 0.142015 0.161686 0.285202 0.247667 -0.0665422 -0.0124821 0.215591 0.207514 -0.149546 -0.0420381 0.0287107 0.094401 0.0875822 0.292825 -0.0438818 -0.0166919 -0.110498 -0.0530855 -0.0520644 -0.0648816 0.0524569 -0.00380861 -0.0614707 -0.0508546 0.0125805 -0.221796 0.206411 0.113568 0.0216862 -0.0887718 0.144571 0.112388 0.0847638 0.00846053 0.26237 0.0157882 0.0152256 0.259692 0.147225 0.063037 0.0362214 0.110923 0.0529355 0.0366308 -0.135202 0.0674284 -0.100161 -0.194826 -0.093148 0.0877756 -0.0246846 -0.084632 0.0826987 -0.154897 0.21085 -0.114759 0.15183 -0.157621 -0.0347762
14 0.000666947 -0.111409 0.0993141 0.0805321 -0.000938519 -0.00606686 0.0859119 -0.0400862 0.138997 -0.0575728 -0.0938257 0.118457 0.0349909 0.067119 0.00659294 -0.0202475 -0.128401 -0.0644715 0.0469342 0.0764417 0.107646 -0.0266116 -0.0347479 -0.123796 -0.0258867 -0.0514683 -0.058975 0.171454 -0.0652228 -0.101362 -0.117074 -0.0969474 0.0234492 0.165549 0.0888312 -0.0876874 -0.0545667 -0.0508681 -0.0562049 -0.0688305 0.00292872 0.102609 0.0391752 0.148182 0.195806 -0.0315528 0.0416104 0.0663606 0.139026 -0.0131714 -0.0914975 0.12176 0.0899457 -0.00102416 0.178497 0.0478996 -0.0938803 -0.0443756 0.0217034 -0.00678743 -0.110734 0.0710715 0.0523559 -0.137881 0.0889441 -0.108984 -0.160224 0.183442 0.0451044 -0.115259 -0.0112727 0.124674 0.0876515 0.00495281 -0.0499989 0.108494 0.0427395 0.00977958 0.14068 0.0261185 0.11616 0.0948074 0.0514671 -0.050874 -0.0205697 -0.0534043 -0.106891 -0.0357236 -0.0642111 -0.0358279 0.158455 -0.0966513 -0.00281436 -0.0139028 0.0235976 0.114835 -0.113935 0.155803 -0.0613989 -0.101999
4 -0.0165355 -0.0727753 0.0942794 0.051194 -0.0736992 -0.0294726 0.0415258 -0.0032338 0.0946473 -0.0288 0.030339 0.0593259 0.0272115 0.0751025 0.00544395 0.0108065 -0.081571 -0.0611575 0.121327 0.0277451 0.0107665 0.0595537 0.0420428 -0.15155 0.00346474 0.0285153 -0.10063 0.0748819 0.0220116 0.0139527 -0.0441084 -0.0893899 0.136801 0.111205 0.0452282 -0.0784523 -0.0522941 -0.00662831 -0.119897 -0.0456198 0.113878 0.139213 -0.0198532 0.0658095 0.146744 -0.00614245 0.0122683 0.0209689 0.114301 0.0282631 -0.0773413 0.0983352 0.0923701 -0.0690084 0.148022 0.0601915 -0.0644545 -0.00976164 0.0105473 -0.0714705 -0.046828 0.0901817 0.0633644 -0.09094 -0.00651999 -0.0711675 -0.10457 0.139268 0.0277116 -0.0345031 0.11199 0.14451 0.113553 -0.0276112 -0.0531862 0.0978577 -0.00452721 -0.0523351 0.0707595 -0.0490272 0.0562621 0.0769216 -0.0447954 0.0171143 -0.060243 -0.0597117 -0.0292131 0.062543 -0.0450195 0.00719839 0.0882047 -0.0554087 0.0113397 0.0481878 0.028421 0.100387 -0.0685096 0.160751 -0.0947394 -0.0275255
13 -0.0201942 0.0881423 -0.0551279 -0.0698929 -0.0454983 -0.0364534 -0.0565639 0.0472446 -0.110413 0.0567656 0.105008 -0.107463 -0.0436119 -0.0299136 -0.0293422 0.0435705 0.108402 0.0202559 0.0187611 -0.0442247 -0.110557 0.065362 0.0671718 0.0484116 0.0111004 0.0869487 0.00361776 -0.10827 0.0890179 0.103603 0.12481 0.0825295 0.0520677 -0.0882064 -0.11059 0.0486707 0.038799 0.0451862 -0.0145416 0.0620491 0.0459193 -0.0480635 -0.0493738 -0.1369 -0.150644 0.0615466 -0.0491138 -0.0762347 -0.105585 0.0590497 0.041122 -0.045242 -0.0478998 -0.0313589 -0.136896 -0.00662763 0.053058 0.0338494 -0.00939488 -0.0247127 0.0936337 -0.00990066 -0.00797827 0.101262 -0.104132 0.0569781 0.108364 -0.127624 -0.0210637 0.0843123 0.0717945 -0.0495047 -0.0166134 -0.0253775 -0.0200077 -0.0655645 -0.0442355 -0.0388922 -0.124514 -0.0759585 -0.0969369 -0.0265369 -0.0865893 0.064902 -0.0199355 0.0376656 0.0862569 0.0926429 0.061587 0.0236186 -0.0815715 0.0572645 0.0191283 -0.00514708 0.0473703 -0.0911858 0.0704102 -0.0870547 0.0331019 0.0742046
3 0.0164261 -0.159195 0.122311 0.100442 -0.0281082 0.0147175 0.0945138 -0.0132151 0.203482 -0.0995319 -0.0690486 0.178353 0.0721779 0.118839 -0.0014476 0.0123297 -0.183227 -0.112828 0.0730106 0.0938016 0.128804 -0.029225 -0.0426389 -0.197767 -0.0356941 -0.060282 -0.0848788 0.212581 -0.0644483 -0.150639 -0.160078 -0.151586 0.0296223 0.198376 0.0950461 -0.171213 -0.0805399 -0.0621757 -0.0773551 -0.089153 0.0543941 0.14755 0.0136165 0.158926 0.268379 -0.0425383 0.0757468 0.0731855 0.202543 0.00104053 -0.114787 0.147562 0.139539 -0.0576176 0.224337 0.0887675 -0.12975 -0.0106641 0.0286571 -0.0249774 -0.157855 0.0897997 0.0612883 -0.207654 0.155719 -0.153305 -0.191377 0.253235 0.0323548 -0.153714 0.029951 0.152816 0.112031 -0.0215075 -0.0469685 0.125053 0.0550133 0.0134002 0.156115 0.0171801 0.172701 0.0905236 0.04275 -0.0906545 -0.0246383 -0.0624873 -0.164277 -0.037653 -0.0676106 -0.0210197 0.17716 -0.136272 0.00612371 0.0246112 0.0296061 0.159126 -0.135679 0.216758 -0.0842646 -0.123023
17 -0.0414292 0.0379836 0.0353066 -0.0513389 -0.0856147 -0.143735 0.00690424 0.0289089 -0.096466 0.106456 0.111592 -0.122963 -0.098379 -0.0209354 -0.0201787 0.00420402 0.0944534 -0.0170558 0.138625 -0.0342797 -0.108937 0.12717 0.147072 -0.038674 0.0344594 0.18095 -0.0809597 0.00401099 0.159855 0.183655 0.160999 0.0711431 0.194425 0.0340034 -0.0800183 0.0200859 0.0162105 -0.00602509 -0.13955 0.0524041 0.15017 0.0567602 -0.0338662 -0.0826934 -0.0877756 0.072258 -0.0788707 -0.0947396 -0.045964 0.0799793 -0.024815 0.0867261 0.0239574 -0.0137794 -0.0646741 0.0435568 -0.0233184 -0.0438763 -0.0131529 -0.0691289 0.0871529 0.0796708 0.108989 0.0815151 -0.211981 0.0325174 0.0175096 -0.0560183 0.0536171 0.0318571 0.162902 0.0934519 0.0863349 -0.0160256 -0.11033 0.0147392 -0.102322 -0.125591 -0.107693 -0.155514 -0.112537 0.130613 -0.126153 0.123303 -0.0878814 -0.0262897 0.110661 0.215255 0.0310624 0.014066 0.0464283 0.0372641 0.0319166 -0.00744894 0.103122 -0.0564207 0.0157688 0.0483183 -0.0304803 0.0587075
9 0.033584 -0.144394 0.0724968 0.0781182 0.020305 0.0267975 0.097775 -0.0113557 0.185782 -0.0950281 -0.122754 0.174881 0.0701092 0.0837957 -0.0135338 0.00361126 -0.157878 -0.0903361 -0.00717299 0.108988 0.170429 -0.102103 -0.0856079 -0.121385 -0.0579427 -0.0989002 -0.0369418 0.223207 -0.107951 -0.214122 -0.149551 -0.11188 -0.0844466 0.170713 0.0728338 -0.149107 -0.0563112 -0.0743616 0.00750277 -0.0661177 -0.031877 0.0639533 0.0300208 0.136541 0.2121 -0.0543675 0.0792 0.0744063 0.147132 -0.0113188 -0.0958711 0.10832 0.093647 -0.0105296 0.15361 0.0611432 -0.112373 -0.00304408 0.0442251 0.0359172 -0.172075 0.0395803 0.0281401 -0.19652 0.205284 -0.144971 -0.15196 0.208062 0.0216872 -0.181689 -0.0542254 0.0807462 0.0538663 -0.00726768 -0.028478 0.0680841 0.0764458 0.0686872 0.149226 0.0460755 0.169936 0.0569667 0.077615 -0.125781 0.0155705 -0.0267725 -0.19863 -0.103716 -0.0365586 -0.0326928 0.165048 -0.137441 0.000619044 -0.0294323 0.0311522 0.116418 -0.124172 0.14299 -0.0213354 -0.151167
28 0.0189983 -0.119343 0.0788652 0.0954904 0.0514876 0.0316403 0.0837094 -0.0488621 0.149871 -0.0727713 -0.137222 0.144598 0.0537211 0.055832 0.0262295 -0.0414625 -0.142688 -0.0497104 -0.0086841 0.0672123 0.143305 -0.0824888 -0.0825062 -0.0783967 -0.0226639 -0.110943 -0.0123727 0.171811 -0.114489 -0.151022 -0.158261 -0.103293 -0.0586707 0.139392 0.122739 -0.0744773 -0.0489683 -0.0612653 0.00840846 -0.0767003 -0.0535108 0.0737543 0.0573305 0.166797 0.201969 -0.0624595 0.0655126 0.102514 0.144702 -0.0507636 -0.0684179 0.0759983 0.0729428 0.0256252 0.176174 0.0180466 -0.0869914 -0.0390188 0.0173412 0.0283277 -0.13298 0.0347989 0.0184124 -0.143178 0.135365 -0.0892742 -0.157387 0.182953 0.0350225 -0.128679 -0.0790699 0.0779873 0.0426867 0.0289756 0.0066272 0.0909082 0.0667219 0.0463698 0.158922 0.0769739 0.132313 0.046873 0.0999423 -0.0920382 0.0139835 -0.0486324 -0.128734 -0.110433 -0.0723676 -0.0434292 0.12948 -0.0968728 -0.024882 -0.0144825 -0.0247082 0.118792 -0.106906 0.1304 -0.0459822 -0.112154
26 0.0421653 -0.238018 0.109079 0.218609 0.193292 0.146714 0.171877 -0.141435 0.29262 -0.172235 -0.36941 0.340024 0.135451 0.0787309 0.0791378 -0.134876 -0.298562 -0.0312932 -0.1043 0.1361 0.357121 -0.237477 -0.262975 -0.0841064 -0.0469938 -0.34277 0.0298973 0.315559 -0.363744 -0.36724 -0.43058 -0.215755 -0.260363 0.236315 0.353528 -0.104911 -0.123818 -0.122667 0.10295 -0.1761 -0.264286 0.0704126 0.195956 0.411338 0.411086 -0.172806 0.152823 0.290633 0.305618 -0.203107 -0.100874 0.083075 0.126263 0.122356 0.383783 -0.0300603 -0.134899 -0.0995353 0.02946 0.107196 -0.290578 0.00799139 -0.0242227 -0.310636 0.347537 -0.172419 -0.31861 0.351399 0.0635261 -0.244034 -0.330697 0.0913255 0.0276535 0.106608 0.0767661 0.19997 0.173731 0.17902 0.408614 0.271612 0.297919 0.0363473 0.299436 -0.233502 0.116084 -0.0941278 -0.262907 -0.363148 -0.180167 -0.115421 0.241547 -0.172284 -0.0640433 -0.0188181 -0.153312 0.272188 -0.188488 0.189421 -0.0635585 -0.241934
32 0.100283 -0.285792 0.108112 0.211303 0.223739 0.153 0.179514 -0.150272 0.295351 -0.203611 -0.380596 0.321891 0.11211 0.0513192 0.0892852 -0.145675 -0.302423 -0.0317097 -0.16095 0.133796 0.365279 -0.307352 -0.264786 -0.0550502 -0.0521621 -0.310021 0.087138 0.322221 -0.341117 -0.419141 -0.385046 -0.216283 -0.334126 0.206662 0.299164 -0.137424 -0.0611628 -0.128155 0.167197 -0.161542 -0.23931 0.0513787 0.178126 0.374021 0.38607 -0.17487 0.154985 0.233232 0.277502 -0.181563 -0.0940432 0.096449 0.0713758 0.147659 0.344256 -0.0393119 -0.1574 -0.114207 0.0438078 0.143559 -0.27606 -0.0167577 -0.0240802 -0.272222 0.395286 -0.178071 -0.299109 0.286708 0.0570043 -0.290785 -0.352513 0.0563709 -0.0231049 0.12396 0.0980731 0.139523 0.20911 0.173015 0.344312 0.280501 0.324362 0.041146 0.345574 -0.263933 0.0808088 -0.0775976 -0.318871 -0.363836 -0.141659 -0.106095 0.235192 -0.161447 -0.0341193 -0.0611069 -0.130348 0.208869 -0.163472 0.174088 -0.0228673 -0.241926
19 0.0373869 -0.130746 0.0593012 0.0837964 0.0813176 0.0131458 0.102446 -0.0462161 0.153803 -0.0854785 -0.177904 0.164567 0.0343782 0.0321099 0.0122625 -0.044414 -0.145584 -0.0492508 -0.0560271 0.0948955 0.182929 -0.139374 -0.111097 -0.0579402 -0.0391382 -0.121962 0.00789115 0.215389 -0.126693 -0.204929 -0.155593 -0.0789754 -0.134499 0.150612 0.0990717 -0.0865715 -0.0343096 -0.096913 0.0621023 -0.0634902 -0.0865561 0.0265302 0.0674984 0.168688 0.184583 -0.0757537 0.0714963 0.0929008 0.122215 -0.0661507 -0.0744649 0.0986489 0.065482 0.0607327 0.145853 0.0266322 -0.0982367 -0.0438459 0.0242133 0.0755234 -0.144631 0.00887369 0.0262104 -0.158104 0.173375 -0.102418 -0.150966 0.167436 0.0235109 -0.173413 -0.121554 0.0539388 0.0136366 0.0348188 0.00558462 0.0704015 0.0684583 0.0700262 0.157042 0.0894427 0.147088 0.0730832 0.126803 -0.126158 0.0391907 -0.0310253 -0.164767 -0.123202 -0.0469865 -0.0576647 0.155411 -0.106659 -0.0151669 -0.0635807 -0.00701354 0.0998436 -0.104899 0.110484 -0.00343831 -0.140063
25 0.0255804 -0.214625 0.120865 0.175185 0.109561 0.0782239 0.149763 -0.105952 0.259585 -0.144113 -0.272896 0.268015 0.0982095 0.0852026 0.0539098 -0.0863915 -0.243713 -0.0737353 -0.026152 0.124387 0.281239 -0.164213 -0.166847 -0.132319 -0.0398619 -0.218349 -0.0187681 0.298477 -0.238257 -0.287394 -0.316486 -0.177709 -0.141752 0.245201 0.250091 -0.122469 -0.0926264 -0.110669 0.0362399 -0.139854 -0.147911 0.104063 0.12594 0.311853 0.361534 -0.130079 0.109391 0.191573 0.255122 -0.124482 -0.123773 0.127197 0.130543 0.0701245 0.319607 0.0180423 -0.13939 -0.0786632 0.0334887 0.0649975 -0.237355 0.0445814 0.0256046 -0.261945 0.269745 -0.170908 -0.280725 0.315271 0.0648397 -0.228192 -0.189713 0.121996 0.0629211 0.0620266 0.0212161 0.1805 0.124706 0.117309 0.316022 0.171963 0.254968 0.0816105 0.206144 -0.169527 0.0621216 -0.0854227 -0.225769 -0.227551 -0.128883 -0.0942431 0.237637 -0.16286 -0.0354484 -0.0197047 -0.0671193 0.224603 -0.185149 0.217248 -0.0617973 -0.203093
29 0.00560993 -0.131549 0.0819231 0.091302 0.0499114 0.00873422 0.0987229 -0.0502289 0.155137 -0.0758608 -0.158511 0.158033 0.0499363 0.0645826 0.0166857 -0.0361125 -0.143124 -0.0688268 -0.00111618 0.0940766 0.163061 -0.0939149 -0.0845092 -0.096008 -0.045446 -0.106011 -0.0288545 0.222749 -0.11279 -0.171465 -0.160698 -0.0871256 -0.0713992 0.173366 0.112653 -0.0844857 -0.0516678 -0.0786525 0.00530948 -0.0732878 -0.0683521 0.066256 0.0587004 0.174048 0.202504 -0.0612788 0.0627223 0.0971757 0.142108 -0.0530386 -0.0878444 0.11307 0.0911756 0.0283238 0.17183 0.0295101 -0.097778 -0.0486676 0.0294481 0.0378526 -0.154193 0.0421277 0.0431581 -0.172214 0.148586 -0.115018 -0.169633 0.196512 0.0492403 -0.158051 -0.0847318 0.0956199 0.061068 0.0225591 -0.026856 0.106451 0.0612022 0.0541211 0.171466 0.0643863 0.1414 0.0826353 0.10508 -0.0955672 0.0199137 -0.0407851 -0.144294 -0.101321 -0.0643684 -0.0533868 0.172821 -0.108981 -0.0162856 -0.0363109 0.00947508 0.121878 -0.12571 0.140947 -0.0277139 -0.137059
20 0.0144649 -0.107345 0.0680034 0.078854 0.0309581 0.0176557 0.0731436 -0.0365873 0.13053 -0.0623061 -0.114992 0.131072 0.0407537 0.0530954 0.0198663 -0.0303678 -0.12807 -0.0502596 0.00155586 0.0612224 0.13015 -0.0701709 -0.0632295 -0.0829238 -0.0281775 -0.0803092 -0.0241432 0.155561 -0.0932874 -0.134996 -0.136825 -0.0886313 -0.0433229 0.132341 0.0927371 -0.0835042 -0.0452854 -0.0612373 -0.00243766 -0.0687543 -0.03668 0.0668776 0.0430059 0.139205 0.185334 -0.0502891 0.0548579 0.0782693 0.131618 -0.0355399 -0.0667428 0.0819625 0.074215 0.015818 0.151151 0.026664 -0.0842246 -0.0251909 0.0191454 0.0170712 -0.11482 0.0365315 0.0275897 -0.135556 0.115704 -0.0919659 -0.132582 0.161586 0.0317037 -0.122181 -0.052956 0.079735 0.0459715 0.0146868 -0.00516003 0.0765491 0.0490694 0.0374295 0.136482 0.0514499 0.115031 0.0534383 0.0720161 -0.0750787 0.0107827 -0.0382485 -0.111865 -0.0792405 -0.0542961 -0.0286326 0.126158 -0.0860579 -0.0153476 -0.00924759 -0.0110396 0.11388 -0.100175 0.120199 -0.042063 -0.0992129
7 -0.0562856 0.0105386 0.110873 -0.0173238 -0.161637 -0.125848 -0.00470682 0.0248285 0.00230987 0.0757863 0.144139 -0.0662915 -0.0693339 0.0411781 -0.0283449 0.0196202 0.0111845 -0.0664905 0.210048 -0.0306086 -0.0983769 0.176808 0.180817 -0.175337 0.0271936 0.222546 -0.173438 0.0270917 0.21518 0.200338 0.126506 0.00295918 0.323012 0.0905787 -0.0559375 -0.0290537 0.0010124 -0.00895967 -0.220629 0.00766704 0.253109 0.13739 -0.0827632 -0.0412662 0.0405627 0.0597736 -0.0586702 -0.094977 0.0390121 0.0908441 -0.0939935 0.161557 0.0993695 -0.0843368 0.0416416 0.103973 -0.0389659 -0.014592 -0.0109664 -0.120458 0.0681458 0.127546 0.162717 0.0429899 -0.209627 -0.0210028 -0.0411798 0.0708511 0.0417414 0.0472743 0.26482 0.205851 0.160898 -0.0599943 -0.1355 0.0908041 -0.102991 -0.161682 -0.0507584 -0.175818 -0.0499336 0.157255 -0.16006 0.15936 -0.130755 -0.0550874 0.119386 0.290591 0.00834649 0.032592 0.0760992 -0.0062467 0.00963631 0.0557384 0.116473 0.0151376 -0.0382611 0.155159 -0.0992444 0.0650919
21 0.035969 -0.134216 0.0648278 0.0876334 0.0472138 0.030613 0.102335 -0.0300759 0.168305 -0.0946969 -0.144203 0.174538 0.0603485 0.0620033 0.00241751 -0.0230429 -0.151954 -0.0728278 -0.02991 0.0984776 0.174072 -0.116792 -0.104656 -0.0962934 -0.0448973 -0.11877 -0.0106798 0.209052 -0.118669 -0.207335 -0.157963 -0.100021 -0.10619 0.159711 0.0971981 -0.116108 -0.0510124 -0.0784995 0.029309 -0.066853 -0.0569199 0.0483113 0.0428081 0.152608 0.196373 -0.0652366 0.0758805 0.0875429 0.143758 -0.0418248 -0.0816533 0.1012 0.0818226 0.024007 0.157022 0.035576 -0.102403 -0.0239101 0.0325653 0.0514325 -0.157854 0.0267921 0.0242646 -0.180846 0.195012 -0.130989 -0.153193 0.190678 0.0276403 -0.167819 -0.089902 0.0732124 0.0377672 0.0192368 -0.00492216 0.0726802 0.0837273 0.0656121 0.158411 0.0767296 0.163781 0.0538406 0.102133 -0.127283 0.0240179 -0.0308016 -0.181337 -0.112459 -0.0463427 -0.0437547 0.163204 -0.116559 -0.00464187 -0.0322817 0.00478269 0.11605 -0.110497 0.129121 -0.0137947 -0.136116
5 -0.0280573 -0.00909599 0.0730981 0.010595 -0.102617 -0.0462715 -0.00188369 0.0182212 0.0162909 0.0354679 0.105039 -0.0333362 -0.00896549 0.045297 -0.0100001 0.0155091 -0.00403387 -0.0409078 0.142125 -0.0196211 -0.0629307 0.120991 0.0970844 -0.111902 0.0309254 0.112661 -0.0951977 -0.00745286 0.101611 0.113725 0.04977 -0.0346279 0.192738 0.0493422 -0.0139069 -0.0455216 -0.0260459 0.0102982 -0.149455 -0.0107663 0.154171 0.115147 -0.0471297 -0.0151813 0.0539367 0.0303901 -0.0263883 -0.0383031 0.052126 0.0603357 -0.0449892 0.0636324 0.0623834 -0.0758405 0.0624504 0.0482688 -0.0248595 -0.000224932 -0.00612823 -0.103022 0.0233446 0.083805 0.0784767 0.00175707 -0.108834 -0.0155208 -0.0375025 0.0519188 0.0199953 0.0235942 0.159228 0.110486 0.0965398 -0.0422223 -0.0569903 0.0625561 -0.0572882 -0.0926165 -0.0192376 -0.0929504 -0.0194031 0.0691051 -0.0977655 0.0830822 -0.0777406 -0.0410216 0.0554718 0.138133 -0.0240176 0.035391 0.0346916 -0.00256751 0.0111389 0.0629275 0.032791 0.040812 -0.0220837 0.098858 -0.0808991 0.04223
30 0.0697732 -0.212638 0.0929393 0.122572 0.0600111 0.0630166 0.137583 -0.0443251 0.277486 -0.148069 -0.194751 0.252228 0.106541 0.0972631 0.00598961 -0.0098036 -0.241452 -0.101807 -0.0442727 0.133499 0.248106 -0.16882 -0.163877 -0.145411 -0.0652164 -0.174939 -0.0122879 0.292013 -0.176794 -0.308926 -0.232325 -0.190234 -0.161656 0.213606 0.139291 -0.19904 -0.0855602 -0.0968247 0.0471912 -0.107276 -0.0655659 0.0862513 0.0562729 0.220647 0.317221 -0.0979564 0.125021 0.123123 0.21857 -0.0414522 -0.114961 0.120705 0.11324 0.0115278 0.246658 0.0631235 -0.16015 -0.0206331 0.0411013 0.0569675 -0.230738 0.0461521 0.0292025 -0.268772 0.30274 -0.176085 -0.215816 0.277159 0.0162682 -0.253009 -0.112306 0.102604 0.0464242 0.0172699 0.00340578 0.0926222 0.125669 0.10109 0.220809 0.116613 0.248349 0.0525563 0.150969 -0.195411 0.0343499 -0.0456554 -0.2706 -0.191986 -0.0789887 -0.0461028 0.202129 -0.180901 -0.0122275 -0.0331621 -0.017099 0.177468 -0.165291 0.180192 -0.0342727 -0.199954
6 -0.030229 0.000414421 0.0698108 -0.00603938 -0.0970869 -0.0736512 0.0059702 0.0185209 0.00696827 0.0420022 0.0825143 -0.0398537 -0.0310565 0.0338656 -0.0177175 0.0177565 0.00125422 -0.0424565 0.130337 -0.00939928 -0.0509634 0.11257 0.102218 -0.102814 0.0107931 0.113573 -0.0934239 0.0209595 0.116259 0.108841 0.0680963 -0.00649942 0.177026 0.0659876 -0.034839 -0.030238 -0.0171704 -0.00160268 -0.142285 0.00725425 0.14869 0.0967432 -0.0490879 -0.0250797 0.0341478 0.0347653 -0.0255263 -0.0528189 0.0267745 0.0616373 -0.0519922 0.0894818 0.0579773 -0.0627744 0.0344447 0.0562198 -0.0278969 -0.00792427 0.00456596 -0.0832032 0.0204354 0.0785023 0.0897001 0.00922204 -0.111338 -0.0146528 -0.0274796 0.0471091 0.0225141 0.00939673 0.163664 0.11268 0.0932417 -0.037456 -0.0852507 0.0469093 -0.0627141 -0.0904535 -0.0299401 -0.105254 -0.0217764 0.0851139 -0.0958028 0.079343 -0.0667773 -0.0398055 0.0515784 0.153845 -0.000480116 0.0198527 0.0556496 -0.0146815 0.0140644 0.0297978 0.066736 0.0232328 -0.0248378 0.0875882 -0.0550102 0.0266254
1 -0.00938575 -0.0464598 0.0678025 0.0409689 -0.0387175 -0.0207854 0.0265186 -0.00816965 0.0566878 -0.0176542 0.00882645 0.0402125 0.00985088 0.0495243 0.00348638 0.000796646 -0.0547605 -0.0448349 0.0807707 0.00905414 0.0193218 0.0374067 0.0298671 -0.0992779 0.00709404 0.0184808 -0.06583 0.0553054 0.0168085 0.00450502 -0.0343821 -0.0603962 0.0830829 0.0780475 0.0338277 -0.0536116 -0.0357241 -0.0111242 -0.0830135 -0.0367401 0.0670448 0.0824509 -0.00171393 0.0534695 0.100504 -0.00765513 0.0051517 0.010364 0.0837017 0.0133977 -0.0472636 0.066785 0.0670399 -0.0402192 0.100892 0.0420988 -0.0475654 -0.00735489 0.00868908 -0.0506687 -0.0379477 0.0573721 0.0517626 -0.0577471 -0.00647329 -0.0450458 -0.0785543 0.0963999 0.0236222 -0.0288143 0.0694811 0.0905976 0.0750529 -0.0119525 -0.0411569 0.0739764 -0.00480607 -0.0270233 0.045486 -0.0263646 0.0399895 0.052794 -0.0239506 0.0160104 -0.0361706 -0.0463268 -0.0129341 0.0428426 -0.0376369 -0.00196025 0.0639784 -0.0440353 0.00253084 0.0341237 0.0176108 0.0678496 -0.0452847 0.105287 -0.0652178 -0.015738
15 0.0346885 -0.154263 0.0728812 0.0854068 0.0585338 0.0101591 0.110737 -0.0353369 0.182593 -0.0952493 -0.166635 0.186359 0.0457756 0.0536208 0.0058938 -0.0266977 -0.158613 -0.0820842 -0.0328613 0.106208 0.192977 -0.131546 -0.109424 -0.0993823 -0.0557167 -0.11664 -0.0186097 0.244411 -0.115087 -0.215165 -0.164871 -0.100844 -0.112407 0.183907 0.0964667 -0.121898 -0.051434 -0.102115 0.0351824 -0.0723543 -0.0659754 0.0493584 0.0527704 0.167749 0.210441 -0.0671369 0.0815285 0.0817597 0.144773 -0.0492343 -0.0957042 0.125074 0.0931209 0.0279063 0.161963 0.0507188 -0.114918 -0.0352152 0.0277646 0.0605517 -0.17245 0.0284417 0.0366707 -0.191972 0.196508 -0.138004 -0.165039 0.204285 0.0291845 -0.19197 -0.0973989 0.0876788 0.0424287 0.017372 -0.0191641 0.0855242 0.083811 0.0693922 0.166808 0.0706882 0.164992 0.084757 0.118917 -0.131106 0.024739 -0.0323098 -0.192942 -0.111918 -0.0477586 -0.0537645 0.188884 -0.126561 -0.0117977 -0.0495343 0.0171624 0.119016 -0.126692 0.147356 -0.0176962 -0.158548
16 0.0257887 -0.129203 0.0646582 0.0811986 0.0479327 0.0155116 0.091253 -0.0345187 0.155324 -0.0733865 -0.150038 0.150514 0.0426841 0.0479345 0.00541149 -0.0282168 -0.139961 -0.0686482 -0.0283182 0.0851716 0.166678 -0.107778 -0.0883897 -0.0839792 -0.0441667 -0.101217 -0.0185982 0.20959 -0.1067 -0.180858 -0.147398 -0.0838562 -0.0920464 0.154089 0.092822 -0.102746 -0.0389537 -0.0835302 0.0252248 -0.0667001 -0.0610035 0.0492832 0.0527966 0.145111 0.178083 -0.0614344 0.0680807 0.0749618 0.126332 -0.038288 -0.0871859 0.0987136 0.06981 0.0290972 0.14236 0.0397862 -0.104089 -0.0320044 0.0228016 0.0466592 -0.147809 0.0249031 0.039023 -0.155692 0.158998 -0.118333 -0.147074 0.17647 0.0256596 -0.162866 -0.0797975 0.0779193 0.033072 0.018232 -0.0117281 0.0770673 0.0724931 0.0625888 0.151707 0.0660375 0.147565 0.0722361 0.0948093 -0.106155 0.0202482 -0.036716 -0.158736 -0.0985437 -0.0476517 -0.0515148 0.160674 -0.114736 -0.00646556 -0.0403977 0.009052 0.102252 -0.109025 0.118055 -0.0125339 -0.13412
10 -0.00196575 -0.0887224 0.0605918 0.0557537 0.0288089 -0.0123609 0.0845502 -0.032031 0.110001 -0.0490385 -0.116294 0.110334 0.0276888 0.0414703 0.0021414 -0.0153259 -0.10072 -0.0588246 0.00319729 0.0698388 0.118478 -0.0715084 -0.049069 -0.0721901 -0.0339779 -0.0684891 -0.0321412 0.172042 -0.0749632 -0.125657 -0.109066 -0.0551668 -0.0513214 0.136035 0.0785037 -0.0658029 -0.0316224 -0.0600438 -0.00564793 -0.054873 -0.0448263 0.0508805 0.0410806 0.120741 0.135588 -0.0413007 0.0399401 0.0660626 0.102702 -0.0267944 -0.071494 0.0981491 0.060136 0.0280943 0.109263 0.0269629 -0.0805272 -0.0391893 0.0233654 0.0327013 -0.110327 0.0313779 0.033791 -0.122279 0.102425 -0.0928231 -0.117036 0.145297 0.0418383 -0.123383 -0.0512223 0.0795147 0.0436534 0.0115788 -0.0339986 0.074701 0.0516948 0.0405113 0.117862 0.0374806 0.111396 0.0686915 0.070377 -0.0689266 0.015858 -0.0371425 -0.115374 -0.0551351 -0.0381214 -0.0492459 0.141494 -0.0924179 -0.00584524 -0.0406569 0.0261533 0.082732 -0.0945867 0.107276 -0.0177057 -0.109719
31 0.0475438 -0.172923 0.0835105 0.109861 0.0513472 0.0468665 0.122714 -0.0459098 0.225727 -0.119543 -0.180277 0.220081 0.0815301 0.0834397 0.00322054 -0.0191635 -0.197058 -0.087686 -0.0300332 0.120564 0.210849 -0.134728 -0.12117 -0.126365 -0.0552272 -0.139186 -0.0231234 0.260802 -0.150636 -0.252148 -0.203353 -0.148558 -0.121449 0.195491 0.123253 -0.156903 -0.070697 -0.0893679 0.0235051 -0.0909156 -0.062865 0.0751415 0.0578209 0.194262 0.262779 -0.0854003 0.103321 0.106714 0.18163 -0.0462017 -0.106358 0.121371 0.098478 0.0128867 0.207669 0.0519604 -0.138802 -0.0358101 0.0386612 0.0538814 -0.200431 0.0371397 0.029479 -0.222023 0.239429 -0.161016 -0.192101 0.244571 0.0288983 -0.217175 -0.0997762 0.0974392 0.0440514 0.0179972 -0.00538355 0.0884475 0.10552 0.0800829 0.203327 0.0911827 0.207619 0.0717657 0.130753 -0.159097 0.0247159 -0.0465166 -0.223086 -0.151782 -0.0708481 -0.0457958 0.196218 -0.146396 -0.00737061 -0.0307992 -0.0048304 0.152498 -0.144606 0.162879 -0.0284318 -0.170589
24 0.0281052 -0.216225 0.130859 0.181215 0.119939 0.0660136 0.149154 -0.0992507 0.25886 -0.140055 -0.269596 0.270739 0.0886308 0.0770645 0.0533186 -0.097096 -0.248981 -0.0731258 -0.0371881 0.114601 0.292633 -0.179997 -0.169346 -0.128799 -0.0451804 -0.214239 -0.0226647 0.307118 -0.236649 -0.291897 -0.311141 -0.183181 -0.148342 0.248685 0.247968 -0.128818 -0.0933747 -0.114854 0.0435962 -0.141946 -0.144199 0.0961958 0.131848 0.321477 0.359407 -0.122555 0.1155 0.195491 0.255091 -0.122112 -0.125345 0.141104 0.133437 0.0704849 0.31116 0.0216351 -0.151341 -0.0739547 0.0221616 0.0742325 -0.241779 0.0397803 0.0260342 -0.257301 0.26526 -0.163943 -0.284362 0.311725 0.0659672 -0.236902 -0.185399 0.131827 0.066234 0.0595712 0.0189982 0.183216 0.130442 0.115349 0.313647 0.167103 0.245503 0.0849576 0.207975 -0.170892 0.0570063 -0.0904406 -0.232608 -0.219069 -0.121696 -0.0969428 0.23909 -0.171432 -0.0357652 -0.0339314 -0.0575128 0.223154 -0.183861 0.213965 -0.065877 -0.202773
2 -0.0179629 -0.126837 0.125528 0.0801005 -0.0675683 -0.0176543 0.0930877 -0.00806445 0.16019 -0.0641692 -0.0232168 0.126158 0.0588972 0.11681 -0.0197307 0.0213203 -0.143297 -0.11722 0.123374 0.0735847 0.0935012 0.0289548 0.0147135 -0.205461 -0.0233641 -0.00622958 -0.126401 0.191917 -0.0173987 -0.0871032 -0.106971 -0.118746 0.0986505 0.194196 0.0665517 -0.141312 -0.0766749 -0.0507848 -0.132674 -0.078618 0.0874644 0.157991 -0.00831561 0.109942 0.219623 -0.0133402 0.034904 0.042731 0.176931 0.0343865 -0.128312 0.146798 0.136567 -0.074864 0.190158 0.0959063 -0.118623 -0.00761821 0.0353579 -0.0607494 -0.117992 0.106543 0.0751177 -0.174065 0.0880687 -0.152723 -0.169085 0.226968 0.0507874 -0.113619 0.0920675 0.180302 0.141871 -0.0432384 -0.0947584 0.133986 0.0346001 -0.00397029 0.122288 -0.0300035 0.136561 0.103195 -0.00612067 -0.0412696 -0.0428321 -0.0590586 -0.117628 0.0236424 -0.0558676 -0.0289303 0.177033 -0.12705 0.0158948 0.0353831 0.0649009 0.138363 -0.131641 0.215532 -0.0905852 -0.0976871
18 -0.02662 0.210454 -0.144354 -0.156832 -0.0614386 -0.0321436 -0.153791 0.0758843 -0.259468 0.126534 0.211768 -0.24835 -0.087081 -0.104176 -0.0357144 0.0614588 0.245201 0.105518 -0.0231422 -0.11879 -0.249376 0.119704 0.112776 0.178517 0.040974 0.158043 0.0655459 -0.305531 0.173263 0.247405 0.260146 0.18334 0.0663195 -0.260878 -0.200684 0.14847 0.0917025 0.109356 0.0205078 0.12912 0.0685916 -0.139315 -0.0953206 -0.278654 -0.3486 0.102166 -0.0990951 -0.15011 -0.254602 0.0769165 0.144118 -0.164878 -0.151015 -0.0252047 -0.305545 -0.060137 0.160136 0.0620712 -0.02967 -0.0336396 0.230078 -0.0707018 -0.0608784 0.25866 -0.219079 0.180616 0.266974 -0.322624 -0.0615993 0.226625 0.0947548 -0.16495 -0.097356 -0.0300415 0.0308431 -0.181332 -0.104802 -0.0724693 -0.273896 -0.11016 -0.230315 -0.110904 -0.151368 0.141938 -0.0246039 0.0925728 0.217206 0.142335 0.109028 0.0686807 -0.256875 0.170686 0.0253155 0.0137223 0.015455 -0.215473 0.185661 -0.245829 0.0859465 0.192187
8 -0.0128561 0.0856775 -0.0588585 -0.0536279 0.0237099 -0.0170352 -0.0488747 0.000450757 -0.112469 0.0567423 0.0242243 -0.0941919 -0.049056 -0.0686511 0.00990534 -0.0167106 0.0986564 0.068449 -0.0415986 -0.0432252 -0.0722256 0.0113925 0.0266611 0.108447 0.0162911 0.0344976 0.057176 -0.108549 0.0385136 0.08124 0.0935908 0.0910795 -0.0169278 -0.106506 -0.0472944 0.103952 0.0484194 0.0292036 0.0488731 0.0567674 -0.025751 -0.0755878 0.000998747 -0.0760196 -0.147761 0.0233845 -0.0430264 -0.0362866 -0.111995 -0.0127627 0.0567751 -0.0682433 -0.0776589 0.0420095 -0.120063 -0.0528808 0.0736515 -0.016866 -0.0179073 0.0213966 0.0971826 -0.0466557 -0.0230185 0.115037 -0.100596 0.0858311 0.0961626 -0.139108 -0.00996699 0.077834 -0.0290006 -0.0831475 -0.0632666 0.0263258 0.0207102 -0.0616952 -0.0313151 -0.0242984 -0.0906885 -0.0102026 -0.0936624 -0.0263716 -0.0163652 0.0526346 0.00427699 0.0285323 0.0955413 0.0322169 0.0339573 0.0066313 -0.086034 0.0856581 -0.00762063 -0.0331401 -0.0102927 -0.0961265 0.07227 -0.116676 0.0423332 0.0623483
22 -0.0189115 0.248006 -0.185894 -0.171122 -0.0414445 -0.0150189 -0.18034 0.0737948 -0.31043 0.132614 0.226606 -0.2902 -0.0995182 -0.134086 -0.0165609 0.0462 0.279983 0.14742 -0.0557386 -0.150939 -0.284938 0.118807 0.113698 0.236499 0.0555102 0.146569 0.103149 -0.388246 0.172188 0.278102 0.287073 0.207193 0.0465191 -0.32994 -0.207193 0.201785 0.115571 0.135124 0.0626434 0.144343 0.0355509 -0.181349 -0.0894112 -0.304652 -0.408608 0.105619 -0.106102 -0.155535 -0.302803 0.0583247 0.184864 -0.226877 -0.187217 -0.00929437 -0.346675 -0.0961335 0.203674 0.0654388 -0.0456762 -0.0180028 0.264423 -0.109605 -0.0933127 0.316852 -0.253783 0.230427 0.318104 -0.387078 -0.0808781 0.27485 0.0638437 -0.224861 -0.148171 -0.0186763 0.06344 -0.213243 -0.11113 -0.0702863 -0.309687 -0.0877624 -0.273238 -0.165223 -0.138496 0.15765 -0.0109445 0.0988039 0.257021 0.129921 0.122452 0.0883297 -0.32902 0.218119 0.0184681 0.0192518 -0.0190189 -0.243356 0.238916 -0.307747 0.0971015 0.228186
12 -0.0138765 0.193231 -0.146684 -0.142142 -0.0438481 -0.00451111 -0.150133 0.0681065 -0.238967 0.0991245 0.198678 -0.227245 -0.0686022 -0.0981284 -0.0248098 0.0535391 0.219055 0.100516 -0.0337593 -0.121256 -0.227215 0.108056 0.0900911 0.175887 0.0397067 0.120772 0.0749839 -0.308386 0.139379 0.214356 0.234543 0.155684 0.0489326 -0.263494 -0.176994 0.134315 0.0880694 0.106419 0.0318715 0.114803 0.0432939 -0.130886 -0.0858054 -0.252164 -0.318787 0.0884221 -0.0817539 -0.135858 -0.228958 0.0580116 0.142517 -0.182028 -0.147698 -0.0250364 -0.281165 -0.0635869 0.158568 0.0753904 -0.0271662 -0.0296961 0.205727 -0.0752164 -0.0817101 0.243934 -0.189545 0.175188 0.256214 -0.303229 -0.0684435 0.216435 0.0735736 -0.173019 -0.111043 -0.0301715 0.0532918 -0.177066 -0.0901518 -0.0510217 -0.247223 -0.07986 -0.210289 -0.1392 -0.129761 0.1236 -0.00968923 0.0875938 0.192383 0.101271 0.101548 0.0792003 -0.259711 0.161819 0.0196718 0.0264602 -0.0124187 -0.191066 0.186114 -0.240559 0.0776928 0.182515
27 0.0179398 -0.168882 0.117542 0.136153 0.049524 0.0295678 0.12145 -0.0541147 0.213392 -0.110298 -0.170491 0.210833 0.0771514 0.0895603 0.0292008 -0.0401783 -0.193477 -0.0985349 0.00876638 0.0990276 0.215913 -0.105047 -0.103655 -0.148137 -0.0342118 -0.147483 -0.0547342 0.260073 -0.146016 -0.212912 -0.23351 -0.159151 -0.0660573 0.222115 0.164451 -0.133674 -0.0856686 -0.0966939 -0.00795754 -0.106375 -0.0680984 0.115494 0.0632095 0.219856 0.296722 -0.0781523 0.0818087 0.131721 0.218874 -0.0545063 -0.102614 0.137115 0.132093 0.0149379 0.240575 0.061129 -0.136145 -0.0345338 0.019509 0.021493 -0.193659 0.0443076 0.0317906 -0.217721 0.208532 -0.140463 -0.221313 0.28091 0.0485725 -0.19433 -0.0718152 0.131508 0.079521 0.0180288 -0.0200371 0.140028 0.0781617 0.067979 0.233717 0.101182 0.189117 0.0736366 0.122159 -0.121817 0.0272534 -0.0736004 -0.191154 -0.125262 -0.0917594 -0.0546047 0.205836 -0.157887 -0.0175722 -0.0135389 -0.0177086 0.190313 -0.163336 0.19899 -0.0581498 -0.155777
11 -0.0128278 0.0703931 -0.0388101 -0.0502962 -0.0227469 -0.0381459 -0.0424527 0.0229838 -0.1004 0.058118 0.075075 -0.0864855 -0.0494935 -0.0433989 -0.0166059 0.00935356 0.089494 0.0243653 0.00576609 -0.047646 -0.086689 0.0390399 0.0533933 0.0556853 0.022637 0.0728572 0.00394827 -0.087445 0.0751297 0.103965 0.102214 0.0782564 0.0366554 -0.075106 -0.0776486 0.0550541 0.0436003 0.0272044 -0.0067444 0.0486102 0.0284962 -0.0443505 -0.0332376 -0.093117 -0.126207 0.0346256 -0.0469422 -0.0627658 -0.0932882 0.0236535 0.0384815 -0.0309888 -0.0360058 -0.00466012 -0.107437 -0.0153932 0.0489999 0.0102841 -0.0121986 -0.00918845 0.0808067 -0.0136395 -0.00530127 0.0978705 -0.104016 0.0626245 0.0844048 -0.110202 -0.00918658 0.0709537 0.0403342 -0.0358764 -0.0271399 -0.00195271 -0.00818645 -0.0497872 -0.048565 -0.0385805 -0.0991793 -0.0516914 -0.0894847 -0.00846205 -0.0565146 0.0589007 -0.0174905 0.0321923 0.0867883 0.0805407 0.0487153 0.0152449 -0.0665505 0.0617699 0.0111838 -0.00639167 0.0184287 -0.0786011 0.0585447 -0.0679744 0.0244041 0.074259
